digraph Tree {
node [shape=box, style="filled, rounded", color="black", fontname=helvetica] ;
edge [fontname=helvetica] ;
0 [label="against_ghost <= 0.25\ngini = 0.92\nsamples = 148\nvalue = [16, 4, 4, 13, 6, 5, 16, 3, 15, 22, 9, 12, 31\n7, 13, 14, 10, 40]\nclass = normal", fillcolor="#fef7f6"] ;
1 [label="against_ice <= 0.75\ngini = 0.11\nsamples = 22\nvalue = [0, 0, 0, 0, 0, 0, 2, 0, 0, 0, 0, 0, 31, 0\n0, 0, 0, 0]\nclass = bug", fillcolor="#8946e7"] ;
0 -> 1 [labeldistance=2.5, labelangle=45, headlabel="True"] ;
2 [label="gini = 0.0\nsamples = 1\nvalue = [0, 0, 0, 0, 0, 0, 2, 0, 0, 0, 0, 0, 0, 0\n0, 0, 0, 0]\nclass = water", fillcolor="#39e581"] ;
1 -> 2 ;
3 [label="gini = 0.0\nsamples = 21\nvalue = [0, 0, 0, 0, 0, 0, 0, 0, 0, 0, 0, 0, 31, 0\n0, 0, 0, 0]\nclass = bug", fillcolor="#8139e5"] ;
1 -> 3 ;
4 [label="against_electric <= 1.5\ngini = 0.91\nsamples = 126\nvalue = [16, 4, 4, 13, 6, 5, 14, 3, 15, 22, 9, 12, 0\n7, 13, 14, 10, 40]\nclass = normal", fillcolor="#fcedec"] ;
0 -> 4 [labeldistance=2.5, labelangle=-45, headlabel="False"] ;
5 [label="against_ground <= 1.5\ngini = 0.92\nsamples = 90\nvalue = [10, 4, 4, 13, 6, 5, 12, 0, 12, 22, 9, 10, 0\n3, 12, 11, 8, 9]\nclass = bug", fillcolor="#f2f9fd"] ;
4 -> 5 ;
6 [label="against_fight <= 0.12\ngini = 0.88\nsamples = 59\nvalue = [10, 2, 4, 0, 6, 5, 0, 0, 11, 22, 8, 10, 0, 0\n12, 0, 0, 9]\nclass = bug", fillcolor="#e8f4fc"] ;
5 -> 6 ;
7 [label="defense <= 89.5\ngini = 0.15\nsamples = 7\nvalue = [0, 0, 0, 0, 0, 0, 0, 0, 11, 0, 0, 0, 0, 0\n1, 0, 0, 0]\nclass = water", fillcolor="#4bdbe7"] ;
6 -> 7 ;
8 [label="gini = 0.28\nsamples = 3\nvalue = [0, 0, 0, 0, 0, 0, 0, 0, 5, 0, 0, 0, 0, 0\n1, 0, 0, 0]\nclass = water", fillcolor="#61dfea"] ;
7 -> 8 ;
9 [label="gini = 0.0\nsamples = 4\nvalue = [0, 0, 0, 0, 0, 0, 0, 0, 6, 0, 0, 0, 0, 0\n0, 0, 0, 0]\nclass = water", fillcolor="#39d7e5"] ;
7 -> 9 ;
10 [label="against_fire <= 1.5\ngini = 0.86\nsamples = 52\nvalue = [10, 2, 4, 0, 6, 5, 0, 0, 0, 22, 8, 10, 0, 0\n11, 0, 0, 9]\nclass = bug", fillcolor="#e2f1fb"] ;
6 -> 10 ;
11 [label="gini = 0.84\nsamples = 28\nvalue = [1, 2, 4, 0, 6, 5, 0, 0, 0, 0, 8, 0, 0, 0\n11, 0, 0, 9]\nclass = bug", fillcolor="#fef4fd"] ;
10 -> 11 ;
12 [label="gini = 0.6\nsamples = 24\nvalue = [9, 0, 0, 0, 0, 0, 0, 0, 0, 22, 0, 10, 0, 0\n0, 0, 0, 0]\nclass = bug", fillcolor="#b2d9f5"] ;
10 -> 12 ;
13 [label="against_dragon <= 0.75\ngini = 0.8\nsamples = 31\nvalue = [0, 2, 0, 13, 0, 0, 12, 0, 1, 0, 1, 0, 0, 3\n0, 11, 8, 0]\nclass = fire", fillcolor="#fcfefa"] ;
5 -> 13 ;
14 [label="against_steel <= 0.38\ngini = 0.44\nsamples = 5\nvalue = [0, 0, 0, 4, 0, 0, 0, 0, 0, 0, 0, 0, 0, 0\n0, 0, 8, 0]\nclass = normal", fillcolor="#f29cb2"] ;
13 -> 14 ;
15 [label="gini = 0.0\nsamples = 1\nvalue = [0, 0, 0, 4, 0, 0, 0, 0, 0, 0, 0, 0, 0, 0\n0, 0, 0, 0]\nclass = fire", fillcolor="#9de539"] ;
14 -> 15 ;
16 [label="gini = 0.0\nsamples = 4\nvalue = [0, 0, 0, 0, 0, 0, 0, 0, 0, 0, 0, 0, 0, 0\n0, 0, 8, 0]\nclass = normal", fillcolor="#e53964"] ;
14 -> 16 ;
17 [label="against_ice <= 0.75\ngini = 0.76\nsamples = 26\nvalue = [0, 2, 0, 9, 0, 0, 12, 0, 1, 0, 1, 0, 0, 3\n0, 11, 0, 0]\nclass = water", fillcolor="#f8fefa"] ;
13 -> 17 ;
18 [label="gini = 0.36\nsamples = 9\nvalue = [0, 2, 0, 0, 0, 0, 11, 0, 1, 0, 0, 0, 0, 0\n0, 0, 0, 0]\nclass = water", fillcolor="#6beca0"] ;
17 -> 18 ;
19 [label="gini = 0.66\nsamples = 17\nvalue = [0, 0, 0, 9, 0, 0, 1, 0, 0, 0, 1, 0, 0, 3\n0, 11, 0, 0]\nclass = normal", fillcolor="#fce6f3"] ;
17 -> 19 ;
20 [label="against_fire <= 0.75\ngini = 0.68\nsamples = 36\nvalue = [6, 0, 0, 0, 0, 0, 2, 3, 3, 0, 0, 2, 0, 4\n1, 3, 2, 31]\nclass = normal", fillcolor="#f2a59e"] ;
4 -> 20 ;
21 [label="against_fairy <= 0.75\ngini = 0.35\nsamples = 25\nvalue = [0, 0, 0, 0, 0, 0, 2, 0, 0, 0, 0, 0, 0, 3\n0, 3, 0, 31]\nclass = normal", fillcolor="#eb7065"] ;
20 -> 21 ;
22 [label="hp <= 57.5\ngini = 0.61\nsamples = 4\nvalue = [0, 0, 0, 0, 0, 0, 2, 0, 0, 0, 0, 0, 0, 3\n0, 0, 0, 1]\nclass = bug", fillcolor="#eecef8"] ;
21 -> 22 ;
23 [label="gini = 0.0\nsamples = 2\nvalue = [0, 0, 0, 0, 0, 0, 0, 0, 0, 0, 0, 0, 0, 3\n0, 0, 0, 0]\nclass = bug", fillcolor="#ba39e5"] ;
22 -> 23 ;
24 [label="gini = 0.44\nsamples = 2\nvalue = [0, 0, 0, 0, 0, 0, 2, 0, 0, 0, 0, 0, 0, 0\n0, 0, 0, 1]\nclass = water", fillcolor="#9cf2c0"] ;
22 -> 24 ;
25 [label="against_flying <= 0.75\ngini = 0.17\nsamples = 21\nvalue = [0, 0, 0, 0, 0, 0, 0, 0, 0, 0, 0, 0, 0, 0\n0, 3, 0, 30]\nclass = normal", fillcolor="#e8594d"] ;
21 -> 25 ;
26 [label="gini = 0.49\nsamples = 4\nvalue = [0, 0, 0, 0, 0, 0, 0, 0, 0, 0, 0, 0, 0, 0\n0, 3, 0, 4]\nclass = normal", fillcolor="#f8d1ce"] ;
25 -> 26 ;
27 [label="gini = 0.0\nsamples = 17\nvalue = [0, 0, 0, 0, 0, 0, 0, 0, 0, 0, 0, 0, 0, 0\n0, 0, 0, 26]\nclass = normal", fillcolor="#e54739"] ;
25 -> 27 ;
28 [label="against_rock <= 3.0\ngini = 0.8\nsamples = 11\nvalue = [6, 0, 0, 0, 0, 0, 0, 3, 3, 0, 0, 2, 0, 1\n1, 0, 2, 0]\nclass = grass", fillcolor="#fae6d7"] ;
20 -> 28 ;
29 [label="against_ghost <= 1.5\ngini = 0.76\nsamples = 6\nvalue = [0, 0, 0, 0, 0, 0, 0, 3, 3, 0, 0, 0, 0, 1\n1, 0, 2, 0]\nclass = water", fillcolor="#ffffff"] ;
28 -> 29 ;
30 [label="gini = 0.61\nsamples = 4\nvalue = [0, 0, 0, 0, 0, 0, 0, 3, 0, 0, 0, 0, 0, 1\n0, 0, 2, 0]\nclass = water", fillcolor="#cef8ee"] ;
29 -> 30 ;
31 [label="gini = 0.38\nsamples = 2\nvalue = [0, 0, 0, 0, 0, 0, 0, 0, 3, 0, 0, 0, 0, 0\n1, 0, 0, 0]\nclass = water", fillcolor="#7be4ee"] ;
29 -> 31 ;
32 [label="against_grass <= 0.38\ngini = 0.38\nsamples = 5\nvalue = [6, 0, 0, 0, 0, 0, 0, 0, 0, 0, 0, 2, 0, 0\n0, 0, 0, 0]\nclass = grass", fillcolor="#eeab7b"] ;
28 -> 32 ;
33 [label="gini = 0.0\nsamples = 4\nvalue = [6, 0, 0, 0, 0, 0, 0, 0, 0, 0, 0, 0, 0, 0\n0, 0, 0, 0]\nclass = grass", fillcolor="#e58139"] ;
32 -> 33 ;
34 [label="gini = 0.0\nsamples = 1\nvalue = [0, 0, 0, 0, 0, 0, 0, 0, 0, 0, 0, 2, 0, 0\n0, 0, 0, 0]\nclass = bug", fillcolor="#4739e5"] ;
32 -> 34 ;
}